[array([[-0.05576925,  0.02670452, -0.04671413, ..., -0.09590334,
         0.05029809,  0.0054268 ],
       [ 0.08528727,  0.04048717, -0.10610801, ..., -0.01621821,
        -0.0559558 ,  0.09229019],
       [ 0.00372952, -0.14058895,  0.07176381, ..., -0.0397906 ,
         0.01053944, -0.1339667 ],
       ...,
       [-0.07963286, -0.05969451, -0.10440597, ...,  0.0023601 ,
        -0.02863879, -0.05073236],
       [ 0.09469638, -0.03117036, -0.05628948, ...,  0.11968788,
        -0.02522762, -0.09476248],
       [-0.01249849, -0.08399042,  0.05334252, ..., -0.12423921,
        -0.06441694, -0.16661537]], dtype=float32), array([[ 0.01643896,  0.03026897,  0.04275949, ...,  0.01355674,
        -0.05309306,  0.00560767],
       [-0.09760243, -0.11250675,  0.06656862, ...,  0.0489119 ,
         0.12627019, -0.07148717],
       [ 0.01638936,  0.04916719,  0.08150542, ...,  0.00908084,
         0.01955942, -0.02683407],
       ...,
       [ 0.06061294,  0.03481027, -0.00486644, ...,  0.00177283,
        -0.03805891,  0.04308001],
       [ 0.02800252,  0.02026229, -0.07039665, ...,  0.01316293,
         0.00507857, -0.00403655],
       [-0.03878652, -0.04186129, -0.05728411, ..., -0.02840505,
        -0.05199478, -0.09540347]], dtype=float32), array([-2.59700362e-02, -1.96853690e-02, -2.26226468e-02,  2.85004154e-02,
       -9.86307021e-03, -3.63351703e-02, -6.90058060e-03, -1.92920715e-02,
       -6.41402751e-02,  6.78449422e-02, -3.82882915e-03, -5.74563956e-03,
       -3.52152344e-03, -5.29709235e-02, -3.39374505e-02, -6.76523149e-02,
       -4.43685465e-02, -5.44966524e-03,  7.96958152e-03, -3.54427402e-03,
       -2.79010553e-02, -1.54750468e-02, -3.79111792e-04, -2.07903814e-02,
       -5.02712131e-02, -1.91926770e-02, -6.27609491e-02, -1.89235806e-02,
       -3.94768119e-02, -1.72200091e-02, -2.63089463e-02, -1.31096190e-03,
       -2.72900444e-02,  2.41555460e-03,  4.13427711e-04, -3.01208138e-03,
       -3.48156840e-02, -3.14137572e-03, -2.31864806e-02, -3.52263190e-02,
        8.93730484e-03, -4.46156524e-02, -4.62476090e-02, -6.41586035e-02,
       -4.46716100e-02, -4.26406115e-02, -1.95831694e-02,  3.53889936e-03,
       -6.47122320e-03, -1.98208801e-02, -3.02667860e-02,  1.07503925e-02,
       -1.29107088e-02, -6.70709610e-02, -1.72222871e-02, -1.40223717e-02,
        5.33570796e-02, -3.92203964e-03, -1.49031496e-03,  4.59081642e-02,
       -1.18125463e-02, -2.21998338e-02, -5.21000512e-02, -1.74471978e-02,
       -5.27154468e-03, -5.25585711e-02, -3.63000706e-02, -4.93781902e-02,
       -4.46605682e-02, -2.97361910e-02, -2.72356067e-03, -4.68332171e-02,
       -4.02073301e-02, -5.48949614e-02,  5.47068659e-03, -4.41318117e-02,
       -5.72227128e-02, -2.02742629e-02, -1.80893764e-02, -7.32554495e-02,
       -3.41694430e-02, -3.49669084e-02, -7.92462658e-03, -8.28311034e-03,
       -1.53807085e-02,  7.74120505e-04,  3.18923406e-02, -6.91145100e-03,
       -4.94397655e-02,  7.03414604e-02, -3.66559960e-02, -4.03168648e-02,
       -3.81544535e-03, -4.88005392e-02, -3.94693427e-02, -5.86817302e-02,
       -2.84307990e-02, -6.16402272e-03,  5.10242544e-02, -1.84017587e-02,
        1.00000000e+00,  1.00000000e+00,  1.00000000e+00,  1.00000000e+00,
        1.00000000e+00,  1.00000000e+00,  1.00000000e+00,  1.00000000e+00,
        1.00000000e+00,  1.00000000e+00,  1.00000000e+00,  1.00000000e+00,
        1.00000000e+00,  1.00000000e+00,  1.00000000e+00,  1.00000000e+00,
        1.00000000e+00,  1.00000000e+00,  1.00000000e+00,  1.00000000e+00,
        1.00000000e+00,  1.00000000e+00,  1.00000000e+00,  1.00000000e+00,
        1.00000000e+00,  1.00000000e+00,  1.00000000e+00,  1.00000000e+00,
        1.00000000e+00,  1.00000000e+00,  1.00000000e+00,  1.00000000e+00,
        1.00000000e+00,  1.00000000e+00,  1.00000000e+00,  1.00000000e+00,
        1.00000000e+00,  1.00000000e+00,  1.00000000e+00,  1.00000000e+00,
        1.00000000e+00,  1.00000000e+00,  1.00000000e+00,  1.00000000e+00,
        1.00000000e+00,  1.00000000e+00,  1.00000000e+00,  1.00000000e+00,
        1.00000000e+00,  1.00000000e+00,  1.00000000e+00,  1.00000000e+00,
        1.00000000e+00,  1.00000000e+00,  1.00000000e+00,  1.00000000e+00,
        1.00000000e+00,  1.00000000e+00,  1.00000000e+00,  1.00000000e+00,
        1.00000000e+00,  1.00000000e+00,  1.00000000e+00,  1.00000000e+00,
        1.00000000e+00,  1.00000000e+00,  1.00000000e+00,  1.00000000e+00,
        1.00000000e+00,  1.00000000e+00,  1.00000000e+00,  1.00000000e+00,
        1.00000000e+00,  1.00000000e+00,  1.00000000e+00,  1.00000000e+00,
        1.00000000e+00,  1.00000000e+00,  1.00000000e+00,  1.00000000e+00,
        1.00000000e+00,  1.00000000e+00,  1.00000000e+00,  1.00000000e+00,
        1.00000000e+00,  1.00000000e+00,  1.00000000e+00,  1.00000000e+00,
        1.00000000e+00,  1.00000000e+00,  1.00000000e+00,  1.00000000e+00,
        1.00000000e+00,  1.00000000e+00,  1.00000000e+00,  1.00000000e+00,
        1.00000000e+00,  1.00000000e+00,  1.00000000e+00,  1.00000000e+00,
        3.58392275e-03, -6.67147897e-03, -9.11026448e-03, -5.45318238e-03,
       -1.02643548e-02, -3.13600525e-03,  4.96320520e-03,  5.44021372e-03,
        1.68668746e-03, -2.10795132e-03,  1.74559734e-03,  3.14427819e-03,
        2.81184446e-03,  2.50138529e-03, -4.51573078e-03,  6.28579219e-05,
       -7.76125642e-04,  8.25949851e-03,  4.09613224e-03,  5.80071006e-04,
       -1.68975233e-03, -9.17443758e-05,  8.94387625e-03,  1.92456110e-03,
        2.24445318e-03, -1.21034449e-03,  6.11066725e-03,  6.25926116e-03,
        2.65587517e-03,  3.45277367e-03,  2.29644473e-03,  1.00885006e-02,
       -3.09118256e-03,  5.10101963e-04,  6.60410337e-03, -5.04562282e-04,
        2.78102867e-02,  5.69858076e-03, -1.41246628e-03, -6.01573323e-04,
       -5.37472405e-03, -1.05061440e-03, -1.29707868e-03,  2.71785259e-03,
        1.40808267e-03, -3.26826144e-03, -1.30393663e-02,  4.02407110e-04,
       -1.42762782e-02,  3.95994540e-03,  2.44150870e-03, -9.11600981e-03,
        5.42647252e-03,  3.35649820e-04,  1.10421376e-02,  1.81687274e-03,
       -3.37621197e-03, -7.08508352e-03,  1.47976363e-02,  5.69279259e-03,
       -3.77843459e-03, -6.87480392e-03, -1.93660054e-03,  1.54991976e-05,
        2.44405324e-04,  5.89217944e-03,  6.01627026e-03, -1.48089905e-03,
       -1.40067353e-03, -5.55950915e-03,  1.58033962e-03,  6.82035636e-04,
       -5.09999518e-04, -1.04298245e-03, -1.37490628e-03,  8.01254623e-03,
        5.73998969e-03, -7.87611306e-03,  8.40595644e-03,  5.18946769e-03,
        3.59715242e-03, -2.43705465e-03,  1.19217802e-04,  1.09227921e-03,
       -1.39693189e-02,  1.09871652e-03,  3.46222636e-03,  3.86439991e-04,
        5.88835776e-03,  2.42027789e-02, -1.44203228e-03,  1.14948605e-03,
       -1.04973151e-03,  2.36385706e-04,  9.12757998e-04,  1.01109862e-03,
        1.71190142e-04, -2.89424462e-03, -5.55314682e-03, -2.37391167e-03,
       -2.44007315e-02, -2.04599407e-02, -2.21750736e-02,  2.15639994e-02,
       -1.06007615e-02, -3.75416651e-02, -6.54468732e-03, -1.80285070e-02,
       -6.51588440e-02,  7.26225749e-02, -9.07556619e-03, -6.53709983e-03,
       -4.35027992e-03, -5.28276935e-02, -3.38680409e-02, -6.51424155e-02,
       -4.46546786e-02, -5.52238617e-03,  6.62289560e-03, -2.75757606e-03,
       -3.04525886e-02, -1.80346500e-02, -1.62265741e-03, -2.19620671e-02,
       -4.26385365e-02, -1.97632778e-02, -6.35736510e-02, -1.72027312e-02,
       -4.24530059e-02, -7.86335859e-03, -2.40192004e-02, -3.56634171e-03,
       -3.05044856e-02,  1.17166922e-03,  5.63537562e-03,  2.46255868e-03,
       -4.39151824e-02, -3.44841811e-03, -2.06574928e-02, -2.90150996e-02,
        7.54129281e-03, -4.83553857e-02, -4.39895056e-02, -6.58288002e-02,
       -4.48301509e-02, -5.18491454e-02, -2.09392179e-02,  2.48647528e-03,
       -7.22206710e-03, -2.31391508e-02, -2.73157395e-02,  1.15436474e-02,
       -1.36640174e-02, -6.86404705e-02, -1.22723700e-02, -1.19728539e-02,
        5.03658243e-02, -7.01103872e-03, -4.28200280e-03,  4.60014716e-02,
       -6.16619922e-03, -2.16047540e-02, -5.20144254e-02, -1.78161673e-02,
       -1.02420505e-02, -5.47023676e-02, -3.46634723e-02, -5.25404327e-02,
       -4.21070755e-02, -2.92406734e-02, -2.68125325e-03, -4.65901569e-02,
       -3.68199199e-02, -5.60137294e-02,  9.10726003e-03, -4.43325602e-02,
       -5.16553037e-02, -2.01994553e-02, -2.05661170e-02, -6.94176704e-02,
       -3.38945836e-02, -3.49982530e-02, -1.09843062e-02, -5.55712543e-03,
       -1.58865228e-02, -7.21903460e-04,  2.87182219e-02, -1.29913194e-02,
       -4.79732044e-02,  6.13408424e-02, -3.64169702e-02, -4.03369926e-02,
       -5.12742810e-03, -5.02658375e-02, -3.75920348e-02, -5.63070923e-02,
       -2.54335217e-02, -5.17576933e-03,  4.07009721e-02, -2.11109854e-02],
      dtype=float32)]
[array([[-0.14433113],
       [-0.17596658],
       [-0.02388106],
       [ 0.05347606],
       [ 0.03963133],
       [-0.19231024],
       [-0.04342433],
       [ 0.10264339],
       [-0.12676048],
       [ 0.19164151],
       [ 0.04516635],
       [ 0.13141203],
       [-0.09519546],
       [ 0.16913015],
       [-0.13809654],
       [ 0.10419551],
       [ 0.00396995],
       [-0.0964704 ],
       [-0.19657454],
       [ 0.21394338],
       [-0.05531257],
       [ 0.10712579],
       [ 0.02968019],
       [ 0.12914489],
       [-0.1892435 ],
       [ 0.17191705],
       [ 0.03586552],
       [-0.07562251],
       [ 0.07608584],
       [ 0.2282718 ],
       [ 0.19588019],
       [-0.08812573],
       [-0.06444545],
       [-0.10264844],
       [-0.0989451 ],
       [-0.23629038],
       [-0.00759222],
       [-0.17084126],
       [ 0.1990984 ],
       [ 0.10193284],
       [ 0.17222545],
       [-0.16921088],
       [-0.04495608],
       [ 0.17852433],
       [-0.00340661],
       [ 0.07539433],
       [ 0.01494122],
       [ 0.06959789],
       [ 0.02512121],
       [-0.10762367],
       [-0.1941381 ],
       [ 0.11192937],
       [ 0.06455919],
       [ 0.08624703],
       [-0.0324119 ],
       [ 0.20216565],
       [ 0.21257904],
       [ 0.1628216 ],
       [-0.02642902],
       [-0.22165532],
       [ 0.06859795],
       [-0.16834448],
       [-0.00154242],
       [-0.18632261],
       [ 0.10917386],
       [ 0.00040703],
       [ 0.01526215],
       [ 0.14111936],
       [-0.13112637],
       [ 0.000557  ],
       [ 0.1320222 ],
       [ 0.15599515],
       [-0.16634436],
       [ 0.12917468],
       [ 0.22761795],
       [ 0.00102349],
       [-0.00702825],
       [-0.20369196],
       [-0.03785197],
       [ 0.0132971 ],
       [ 0.0580492 ],
       [-0.17525865],
       [ 0.20263991],
       [-0.19486839],
       [ 0.01814572],
       [ 0.12644331],
       [ 0.20054995],
       [ 0.11888977],
       [ 0.13215089],
       [-0.04142353],
       [-0.1180378 ],
       [ 0.17590323],
       [ 0.16484173],
       [-0.05570062],
       [-0.20235093],
       [ 0.07446942],
       [ 0.09080362],
       [ 0.1703135 ],
       [ 0.12605135],
       [-0.15948157]], dtype=float32), array([0.00286991], dtype=float32)]
